
#Weights for basis with square positions
np.array([[ 1.69527314e-03,  3.41343903e-03,  1.61477925e-03,
         6.95911950e-03,  7.20677083e-03,  7.35947460e-03,
         9.05316219e-03,  7.68094195e-03,  1.48505251e-03,
         1.55247408e-02,  7.80891117e-03,  1.89691289e-02,
         4.00558145e-02,  1.41689202e-02,  9.39391126e-03,
        -1.41270794e-01],
       [-1.46113930e-03, -4.45134229e-03, -2.52525253e-03,
        -5.78986560e-03, -5.32627892e-03, -6.38832466e-03,
        -5.94265448e-03, -1.51693115e-02, -5.67908072e-03,
        -2.81179694e-02, -2.47119287e-02, -3.48801653e-02,
        -2.87216892e-02, -5.61286155e-03, -7.60900936e-03,
        -7.25753192e-03],
       [-1.06347720e-03, -3.19385434e-03, -1.42008108e-03,
        -3.15125843e-03, -2.49883916e-03, -6.36055460e-03,
        -6.05900532e-03, -1.14772163e-02, -3.00146302e-03,
        -1.31992080e-02, -8.42859163e-03, -3.72708545e-02,
        -3.17013643e-02, -3.93515190e-03, -6.67385847e-03,
        -2.54056529e-03],
       [-2.77250672e-04, -7.89365731e-04,  1.33359740e-03,
         1.38880178e-03,  7.27382441e-04, -6.89846353e-03,
        -8.18215983e-03, -5.43726956e-03,  5.42619842e-03,
         1.39210224e-02,  9.82057209e-03, -4.90265883e-02,
        -4.67924228e-02, -1.03011209e-03, -8.00428112e-03,
         6.14374688e-03],
       [-8.59762077e-04, -1.98219664e-03, -5.49120180e-04,
        -3.01691126e-03, -3.15325955e-03, -5.94210241e-03,
        -5.92345059e-03, -5.31364250e-03,  5.36516179e-04,
        -1.45006239e-02, -1.63053753e-02, -3.73054683e-02,
        -3.13349889e-02, -4.46832023e-03, -5.20821820e-03,
        -3.85946765e-03],
       [-4.20720555e-04,  1.18300419e-03,  7.13755339e-05,
         4.58014652e-04, -2.17130517e-03, -5.39653743e-03,
        -6.95898755e-03,  1.07830119e-02,  9.08679876e-04,
         7.98148778e-03, -1.52428680e-02, -3.38434871e-02,
        -3.97361464e-02, -4.02258513e-03, -3.99481622e-03,
         1.20426470e-03],
       [ 1.23597540e-04,  5.65014108e-03,  2.44293260e-03,
         1.93729053e-03,  1.12534528e-03, -4.49535138e-03,
        -8.76677603e-03,  3.30370707e-02,  8.77277017e-03,
         1.16718305e-02,  1.33635202e-03, -1.95480237e-02,
        -4.99159183e-02, -4.17702277e-03, -2.44447123e-03,
         9.93909462e-03],
       [-2.53184878e-04,  5.76364294e-03,  2.48411345e-03,
        -1.64746191e-03, -6.84504119e-04, -4.85373903e-04,
        -9.61742883e-03,  3.64115415e-02,  1.01676805e-02,
        -1.20148196e-02, -6.13283056e-03,  2.20376107e-02,
        -4.81733839e-02, -4.99599773e-03, -5.45456276e-03,
         7.83643566e-03],
       [-5.71057436e-04,  3.11627280e-03,  4.36073912e-03,
        -8.12267650e-04, -8.79124886e-04, -3.21430044e-03,
        -5.56284215e-03,  2.19015600e-02,  2.22026583e-02,
         3.55417431e-06, -7.59295741e-03,  1.45203638e-02,
        -1.44240232e-02, -1.01761653e-02, -5.81156852e-04,
         6.31506303e-04],
       [-3.23849275e-04,  6.78814840e-03,  9.91241351e-03,
        -1.39990006e-03,  2.12711519e-03, -3.44236306e-04,
        -1.04189889e-02,  3.99165859e-02,  5.01502906e-02,
        -6.13814368e-03,  5.21367438e-03,  2.33180415e-02,
        -2.97786846e-02, -1.38231343e-02, -8.82643474e-04,
         1.17115493e-02],
       [-1.93227435e-03, -3.69566587e-04,  1.01340519e-02,
        -3.78914329e-03, -1.07288709e-03, -6.46419736e-03,
        -8.69886064e-03,  9.94161435e-03,  5.89892150e-02,
        -1.03333450e-02,  2.99636507e-03,  2.64780013e-02,
         2.28126909e-02, -1.52991007e-02, -7.27864093e-03,
         9.71706991e-03],
       [-8.31458176e-04,  7.60895079e-04,  7.75464763e-03,
        -1.21683805e-03, -2.00615335e-04, -4.77551183e-03,
        -3.70504079e-03,  9.43153120e-03,  3.66495954e-02,
        -7.04012506e-06,  7.90183179e-03,  1.63371255e-02,
         2.86000223e-02, -9.05629716e-03, -5.06901199e-03,
         1.53728403e-02],
       [-2.27122462e-03, -2.21391582e-03,  5.30972091e-03,
        -1.22871649e-03, -4.50336447e-03, -9.57461204e-03,
        -2.91132670e-04,  4.75674497e-03,  3.02821756e-02,
         1.10657937e-03,  1.53799488e-03,  2.28420679e-02,
         4.77870966e-02, -1.17374778e-02, -1.41670202e-02,
         1.56529784e-02],
       [-1.19115458e-03, -2.29626131e-04,  3.77671823e-03,
        -2.60091102e-03, -4.14278252e-03, -3.17519977e-03,
         6.27848383e-03,  1.72637534e-03,  7.88046644e-03,
         5.32985965e-03,  5.77372288e-03,  2.13962958e-02,
         4.84802929e-02, -2.01372716e-03, -1.41536326e-02,
         2.39418753e-02],
       [ 1.66249019e-03,  1.72263229e-03, -4.48384764e-03,
         1.30554268e-03,  2.01165631e-03,  1.00779425e-02,
         1.67622608e-02, -9.34043199e-03, -4.23143208e-02,
         5.67181406e-03,  4.15987063e-03,  1.97172821e-02,
         5.36749075e-02,  9.86171119e-03,  5.09211640e-03,
         2.85735081e-02],
       [ 5.40515002e-03,  5.82815971e-03, -1.96409343e-02,
         3.30035663e-03,  6.19802218e-03,  2.65492890e-02,
         2.69242723e-02, -9.99551558e-03, -9.70357727e-02,
         6.01298418e-03,  7.75658948e-03,  1.35860198e-02,
         4.57811885e-02,  3.33482323e-02,  2.70997434e-02,
         3.81165031e-02],
       [ 3.43388000e-03, -8.29414252e-03, -1.42554908e-02,
         9.42295814e-03,  5.82219727e-03,  1.86009844e-02,
         2.01832445e-02, -6.29211499e-02, -6.37602339e-02,
         9.58310651e-03,  1.80003454e-02,  1.16252533e-02,
         3.22114441e-02,  2.28121257e-02,  3.07169629e-02,
        -3.58496608e-03],
       [-8.63837782e-04, -1.27023255e-02, -6.32036296e-03,
        -1.18810148e-04, -5.85528296e-04,  9.27074962e-04,
         9.25904214e-04, -5.59324408e-02, -2.16604279e-02,
         7.50417046e-03,  6.10832170e-03,  1.04739668e-03,
         1.17516424e-03,  1.01569645e-02,  9.21858949e-03,
        -1.03280475e-02]])